digraph Tree {
node [shape=box] ;
0 [label="int_rate <= 5.23\nentropy = 1.0\nsamples = 583242\nvalue = [295024, 288218]"] ;
1 [label="credit_score <= 738.5\nentropy = 0.665\nsamples = 166883\nvalue = [138001, 28882]"] ;
0 -> 1 [labeldistance=2.5, labelangle=45, headlabel="True"] ;
2 [label="int_rate <= 4.519\nentropy = 0.895\nsamples = 57625\nvalue = [39683, 17942]"] ;
1 -> 2 ;
3 [label="credit_score <= 692.5\nentropy = 0.803\nsamples = 36983\nvalue = [27920, 9063]"] ;
2 -> 3 ;
4 [label="disbursal_timestamp <= 1481907648.0\nentropy = 0.937\nsamples = 12234\nvalue = [7908, 4326]"] ;
3 -> 4 ;
5 [label="state_1 <= 0.5\nentropy = 0.948\nsamples = 11717\nvalue = [7416, 4301]"] ;
4 -> 5 ;
6 [label="credit_score <= 667.5\nentropy = 0.913\nsamples = 9045\nvalue = [6081, 2964]"] ;
5 -> 6 ;
7 [label="entropy = 0.974\nsamples = 3524\nvalue = [2096, 1428]"] ;
6 -> 7 ;
8 [label="entropy = 0.853\nsamples = 5521\nvalue = [3985, 1536]"] ;
6 -> 8 ;
9 [label="int_rate <= 3.87\nentropy = 1.0\nsamples = 2672\nvalue = [1335, 1337]"] ;
5 -> 9 ;
10 [label="entropy = 0.955\nsamples = 801\nvalue = [500, 301]"] ;
9 -> 10 ;
11 [label="entropy = 0.992\nsamples = 1871\nvalue = [835, 1036]"] ;
9 -> 11 ;
12 [label="credit_score <= 661.5\nentropy = 0.279\nsamples = 517\nvalue = [492, 25]"] ;
4 -> 12 ;
13 [label="loan_amnt <= 228000.0\nentropy = 0.496\nsamples = 147\nvalue = [131, 16]"] ;
12 -> 13 ;
14 [label="entropy = 0.629\nsamples = 95\nvalue = [80, 15]"] ;
13 -> 14 ;
15 [label="entropy = 0.137\nsamples = 52\nvalue = [51, 1]"] ;
13 -> 15 ;
16 [label="disbursal_timestamp <= 1497675648.0\nentropy = 0.165\nsamples = 370\nvalue = [361, 9]"] ;
12 -> 16 ;
17 [label="entropy = 0.253\nsamples = 212\nvalue = [203, 9]"] ;
16 -> 17 ;
18 [label="entropy = 0.0\nsamples = 158\nvalue = [158, 0]"] ;
16 -> 18 ;
19 [label="state_1 <= 0.5\nentropy = 0.704\nsamples = 24749\nvalue = [20012, 4737]"] ;
3 -> 19 ;
20 [label="disbursal_timestamp <= 1466096448.0\nentropy = 0.633\nsamples = 19841\nvalue = [16677, 3164]"] ;
19 -> 20 ;
21 [label="int_rate <= 3.775\nentropy = 0.679\nsamples = 16577\nvalue = [13600, 2977]"] ;
20 -> 21 ;
22 [label="entropy = 0.543\nsamples = 6105\nvalue = [5344, 761]"] ;
21 -> 22 ;
23 [label="entropy = 0.745\nsamples = 10472\nvalue = [8256, 2216]"] ;
21 -> 23 ;
24 [label="disbursal_timestamp <= 1481907648.0\nentropy = 0.317\nsamples = 3264\nvalue = [3077, 187]"] ;
20 -> 24 ;
25 [label="entropy = 0.386\nsamples = 2268\nvalue = [2097, 171]"] ;
24 -> 25 ;
26 [label="entropy = 0.119\nsamples = 996\nvalue = [980, 16]"] ;
24 -> 26 ;
27 [label="int_rate <= 3.525\nentropy = 0.905\nsamples = 4908\nvalue = [3335, 1573]"] ;
19 -> 27 ;
28 [label="annual_inc <= 23773.0\nentropy = 0.696\nsamples = 892\nvalue = [725, 167]"] ;
27 -> 28 ;
29 [label="entropy = 0.863\nsamples = 203\nvalue = [145, 58]"] ;
28 -> 29 ;
30 [label="entropy = 0.63\nsamples = 689\nvalue = [580, 109]"] ;
28 -> 30 ;
31 [label="disbursal_timestamp <= 1481907648.0\nentropy = 0.934\nsamples = 4016\nvalue = [2610, 1406]"] ;
27 -> 31 ;
32 [label="entropy = 0.945\nsamples = 3848\nvalue = [2450, 1398]"] ;
31 -> 32 ;
33 [label="entropy = 0.276\nsamples = 168\nvalue = [160, 8]"] ;
31 -> 33 ;
34 [label="credit_score <= 683.5\nentropy = 0.986\nsamples = 20642\nvalue = [11763, 8879]"] ;
2 -> 34 ;
35 [label="disbursal_timestamp <= 1466096448.0\nentropy = 0.994\nsamples = 6955\nvalue = [3170, 3785]"] ;
34 -> 35 ;
36 [label="disbursal_timestamp <= 1182056448.0\nentropy = 0.982\nsamples = 6020\nvalue = [2540, 3480]"] ;
35 -> 36 ;
37 [label="credit_score <= 675.5\nentropy = 0.869\nsamples = 1196\nvalue = [347, 849]"] ;
36 -> 37 ;
38 [label="entropy = 0.838\nsamples = 1009\nvalue = [270, 739]"] ;
37 -> 38 ;
39 [label="entropy = 0.977\nsamples = 187\nvalue = [77, 110]"] ;
37 -> 39 ;
40 [label="credit_score <= 650.5\nentropy = 0.994\nsamples = 4824\nvalue = [2193, 2631]"] ;
36 -> 40 ;
41 [label="entropy = 0.955\nsamples = 1525\nvalue = [574, 951]"] ;
40 -> 41 ;
42 [label="entropy = 1.0\nsamples = 3299\nvalue = [1619, 1680]"] ;
40 -> 42 ;
43 [label="state_1 <= 0.5\nentropy = 0.911\nsamples = 935\nvalue = [630, 305]"] ;
35 -> 43 ;
44 [label="disbursal_timestamp <= 1497675648.0\nentropy = 0.734\nsamples = 659\nvalue = [523, 136]"] ;
43 -> 44 ;
45 [label="entropy = 0.778\nsamples = 591\nvalue = [455, 136]"] ;
44 -> 45 ;
46 [label="entropy = 0.0\nsamples = 68\nvalue = [68, 0]"] ;
44 -> 46 ;
47 [label="loan_amnt <= 233500.0\nentropy = 0.963\nsamples = 276\nvalue = [107, 169]"] ;
43 -> 47 ;
48 [label="entropy = 1.0\nsamples = 169\nvalue = [85, 84]"] ;
47 -> 48 ;
49 [label="entropy = 0.733\nsamples = 107\nvalue = [22, 85]"] ;
47 -> 49 ;
50 [label="disbursal_timestamp <= 1182056448.0\nentropy = 0.952\nsamples = 13687\nvalue = [8593, 5094]"] ;
34 -> 50 ;
51 [label="credit_score <= 709.5\nentropy = 0.995\nsamples = 1491\nvalue = [683, 808]"] ;
50 -> 51 ;
52 [label="state_4 <= 0.5\nentropy = 0.971\nsamples = 676\nvalue = [271, 405]"] ;
51 -> 52 ;
53 [label="entropy = 0.958\nsamples = 590\nvalue = [224, 366]"] ;
52 -> 53 ;
54 [label="entropy = 0.994\nsamples = 86\nvalue = [47, 39]"] ;
52 -> 54 ;
55 [label="state_1 <= 0.5\nentropy = 1.0\nsamples = 815\nvalue = [412, 403]"] ;
51 -> 55 ;
56 [label="entropy = 0.997\nsamples = 691\nvalue = [366, 325]"] ;
55 -> 56 ;
57 [label="entropy = 0.951\nsamples = 124\nvalue = [46, 78]"] ;
55 -> 57 ;
58 [label="annual_inc <= 61968.5\nentropy = 0.935\nsamples = 12196\nvalue = [7910, 4286]"] ;
50 -> 58 ;
59 [label="disbursal_timestamp <= 1339866048.0\nentropy = 0.954\nsamples = 10130\nvalue = [6338, 3792]"] ;
58 -> 59 ;
60 [label="entropy = 0.979\nsamples = 6276\nvalue = [3668, 2608]"] ;
59 -> 60 ;
61 [label="entropy = 0.89\nsamples = 3854\nvalue = [2670, 1184]"] ;
59 -> 61 ;
62 [label="credit_score <= 703.5\nentropy = 0.794\nsamples = 2066\nvalue = [1572, 494]"] ;
58 -> 62 ;
63 [label="entropy = 0.912\nsamples = 584\nvalue = [393, 191]"] ;
62 -> 63 ;
64 [label="entropy = 0.731\nsamples = 1482\nvalue = [1179, 303]"] ;
62 -> 64 ;
65 [label="int_rate <= 4.487\nentropy = 0.469\nsamples = 109258\nvalue = [98318, 10940]"] ;
1 -> 65 ;
66 [label="annual_inc <= 34354.0\nentropy = 0.349\nsamples = 73274\nvalue = [68476, 4798]"] ;
65 -> 66 ;
67 [label="credit_score <= 777.5\nentropy = 0.495\nsamples = 25562\nvalue = [22788, 2774]"] ;
66 -> 67 ;
68 [label="disbursal_timestamp <= 1481907648.0\nentropy = 0.595\nsamples = 11579\nvalue = [9910, 1669]"] ;
67 -> 68 ;
69 [label="state_1 <= 0.5\nentropy = 0.611\nsamples = 11075\nvalue = [9409, 1666]"] ;
68 -> 69 ;
70 [label="entropy = 0.559\nsamples = 8641\nvalue = [7514, 1127]"] ;
69 -> 70 ;
71 [label="entropy = 0.763\nsamples = 2434\nvalue = [1895, 539]"] ;
69 -> 71 ;
72 [label="int_rate <= 4.215\nentropy = 0.053\nsamples = 504\nvalue = [501, 3]"] ;
68 -> 72 ;
73 [label="entropy = 0.0\nsamples = 360\nvalue = [360, 0]"] ;
72 -> 73 ;
74 [label="entropy = 0.146\nsamples = 144\nvalue = [141, 3]"] ;
72 -> 74 ;
75 [label="annual_inc <= 15637.0\nentropy = 0.399\nsamples = 13983\nvalue = [12878, 1105]"] ;
67 -> 75 ;
76 [label="disbursal_timestamp <= 1450285248.0\nentropy = 0.586\nsamples = 2166\nvalue = [1861, 305]"] ;
75 -> 76 ;
77 [label="entropy = 0.624\nsamples = 1862\nvalue = [1572, 290]"] ;
76 -> 77 ;
78 [label="entropy = 0.284\nsamples = 304\nvalue = [289, 15]"] ;
76 -> 78 ;
79 [label="disbursal_timestamp <= 1434517248.0\nentropy = 0.357\nsamples = 11817\nvalue = [11017, 800]"] ;
75 -> 79 ;
80 [label="entropy = 0.399\nsamples = 8392\nvalue = [7729, 663]"] ;
79 -> 80 ;
81 [label="entropy = 0.242\nsamples = 3425\nvalue = [3288, 137]"] ;
79 -> 81 ;
82 [label="credit_score <= 770.5\nentropy = 0.253\nsamples = 47712\nvalue = [45688, 2024]"] ;
66 -> 82 ;
83 [label="state_1 <= 0.5\nentropy = 0.373\nsamples = 14895\nvalue = [13823, 1072]"] ;
82 -> 83 ;
84 [label="disbursal_timestamp <= 1466096448.0\nentropy = 0.31\nsamples = 12514\nvalue = [11816, 698]"] ;
83 -> 84 ;
85 [label="entropy = 0.339\nsamples = 10491\nvalue = [9830, 661]"] ;
84 -> 85 ;
86 [label="entropy = 0.132\nsamples = 2023\nvalue = [1986, 37]"] ;
84 -> 86 ;
87 [label="loan_amnt <= 204500.0\nentropy = 0.627\nsamples = 2381\nvalue = [2007, 374]"] ;
83 -> 87 ;
88 [label="entropy = 0.357\nsamples = 696\nvalue = [649, 47]"] ;
87 -> 88 ;
89 [label="entropy = 0.71\nsamples = 1685\nvalue = [1358, 327]"] ;
87 -> 89 ;
90 [label="state_1 <= 0.5\nentropy = 0.189\nsamples = 32817\nvalue = [31865, 952]"] ;
82 -> 90 ;
91 [label="int_rate <= 4.112\nentropy = 0.161\nsamples = 28067\nvalue = [27405, 662]"] ;
90 -> 91 ;
92 [label="entropy = 0.132\nsamples = 20532\nvalue = [20157, 375]"] ;
91 -> 92 ;
93 [label="entropy = 0.233\nsamples = 7535\nvalue = [7248, 287]"] ;
91 -> 93 ;
94 [label="loan_amnt <= 249500.0\nentropy = 0.332\nsamples = 4750\nvalue = [4460, 290]"] ;
90 -> 94 ;
95 [label="entropy = 0.198\nsamples = 2641\nvalue = [2560, 81]"] ;
94 -> 95 ;
96 [label="entropy = 0.466\nsamples = 2109\nvalue = [1900, 209]"] ;
94 -> 96 ;
97 [label="annual_inc <= 42468.5\nentropy = 0.659\nsamples = 35984\nvalue = [29842, 6142]"] ;
65 -> 97 ;
98 [label="credit_score <= 774.5\nentropy = 0.769\nsamples = 19018\nvalue = [14745, 4273]"] ;
97 -> 98 ;
99 [label="disbursal_timestamp <= 1276750848.0\nentropy = 0.865\nsamples = 8428\nvalue = [6005, 2423]"] ;
98 -> 99 ;
100 [label="annual_inc <= 24709.5\nentropy = 0.92\nsamples = 5122\nvalue = [3405, 1717]"] ;
99 -> 100 ;
101 [label="entropy = 0.97\nsamples = 2017\nvalue = [1215, 802]"] ;
100 -> 101 ;
102 [label="entropy = 0.875\nsamples = 3105\nvalue = [2190, 915]"] ;
100 -> 102 ;
103 [label="disbursal_timestamp <= 1418749248.0\nentropy = 0.748\nsamples = 3306\nvalue = [2600, 706]"] ;
99 -> 103 ;
104 [label="entropy = 0.791\nsamples = 2497\nvalue = [1904, 593]"] ;
103 -> 104 ;
105 [label="entropy = 0.583\nsamples = 809\nvalue = [696, 113]"] ;
103 -> 105 ;
106 [label="annual_inc <= 20695.5\nentropy = 0.668\nsamples = 10590\nvalue = [8740, 1850]"] ;
98 -> 106 ;
107 [label="disbursal_timestamp <= 1292518848.0\nentropy = 0.794\nsamples = 3090\nvalue = [2351, 739]"] ;
106 -> 107 ;
108 [label="entropy = 0.868\nsamples = 2054\nvalue = [1459, 595]"] ;
107 -> 108 ;
109 [label="entropy = 0.582\nsamples = 1036\nvalue = [892, 144]"] ;
107 -> 109 ;
110 [label="int_rate <= 4.872\nentropy = 0.605\nsamples = 7500\nvalue = [6389, 1111]"] ;
106 -> 110 ;
111 [label="entropy = 0.522\nsamples = 4033\nvalue = [3559, 474]"] ;
110 -> 111 ;
112 [label="entropy = 0.688\nsamples = 3467\nvalue = [2830, 637]"] ;
110 -> 112 ;
113 [label="credit_score <= 777.5\nentropy = 0.5\nsamples = 16966\nvalue = [15097, 1869]"] ;
97 -> 113 ;
114 [label="disbursal_timestamp <= 1229446848.0\nentropy = 0.644\nsamples = 7516\nvalue = [6284, 1232]"] ;
113 -> 114 ;
115 [label="annual_inc <= 79048.0\nentropy = 0.741\nsamples = 3579\nvalue = [2828, 751]"] ;
114 -> 115 ;
116 [label="entropy = 0.804\nsamples = 2561\nvalue = [1933, 628]"] ;
115 -> 116 ;
117 [label="entropy = 0.532\nsamples = 1018\nvalue = [895, 123]"] ;
115 -> 117 ;
118 [label="annual_inc <= 62161.0\nentropy = 0.536\nsamples = 3937\nvalue = [3456, 481]"] ;
114 -> 118 ;
119 [label="entropy = 0.622\nsamples = 1989\nvalue = [1681, 308]"] ;
118 -> 119 ;
120 [label="entropy = 0.432\nsamples = 1948\nvalue = [1775, 173]"] ;
118 -> 120 ;
121 [label="annual_inc <= 77563.0\nentropy = 0.356\nsamples = 9450\nvalue = [8813, 637]"] ;
113 -> 121 ;
122 [label="loan_amnt <= 237500.0\nentropy = 0.416\nsamples = 6218\nvalue = [5696, 522]"] ;
121 -> 122 ;
123 [label="entropy = 0.313\nsamples = 3038\nvalue = [2867, 171]"] ;
122 -> 123 ;
124 [label="entropy = 0.501\nsamples = 3180\nvalue = [2829, 351]"] ;
122 -> 124 ;
125 [label="disbursal_timestamp <= 1149181248.0\nentropy = 0.222\nsamples = 3232\nvalue = [3117, 115]"] ;
121 -> 125 ;
126 [label="entropy = 0.503\nsamples = 126\nvalue = [112, 14]"] ;
125 -> 126 ;
127 [label="entropy = 0.207\nsamples = 3106\nvalue = [3005, 101]"] ;
125 -> 127 ;
128 [label="credit_score <= 721.5\nentropy = 0.956\nsamples = 416359\nvalue = [157023, 259336]"] ;
0 -> 128 [labeldistance=2.5, labelangle=-45, headlabel="False"] ;
129 [label="disbursal_timestamp <= 1071593984.0\nentropy = 0.853\nsamples = 252290\nvalue = [70111, 182179]"] ;
128 -> 129 ;
130 [label="credit_score <= 666.5\nentropy = 0.975\nsamples = 103028\nvalue = [41938, 61090]"] ;
129 -> 130 ;
131 [label="loan_amnt <= 97500.0\nentropy = 0.895\nsamples = 51955\nvalue = [16170, 35785]"] ;
130 -> 131 ;
132 [label="credit_score <= 636.5\nentropy = 0.792\nsamples = 18083\nvalue = [4305, 13778]"] ;
131 -> 132 ;
133 [label="int_rate <= 7.452\nentropy = 0.721\nsamples = 9600\nvalue = [1916, 7684]"] ;
132 -> 133 ;
134 [label="entropy = 0.782\nsamples = 5268\nvalue = [1223, 4045]"] ;
133 -> 134 ;
135 [label="entropy = 0.634\nsamples = 4332\nvalue = [693, 3639]"] ;
133 -> 135 ;
136 [label="annual_inc <= 20210.5\nentropy = 0.858\nsamples = 8483\nvalue = [2389, 6094]"] ;
132 -> 136 ;
137 [label="entropy = 0.824\nsamples = 5815\nvalue = [1500, 4315]"] ;
136 -> 137 ;
138 [label="entropy = 0.918\nsamples = 2668\nvalue = [889, 1779]"] ;
136 -> 138 ;
139 [label="credit_score <= 623.5\nentropy = 0.934\nsamples = 33872\nvalue = [11865, 22007]"] ;
131 -> 139 ;
140 [label="state_3 <= 0.5\nentropy = 0.851\nsamples = 11317\nvalue = [3130, 8187]"] ;
139 -> 140 ;
141 [label="entropy = 0.825\nsamples = 8796\nvalue = [2274, 6522]"] ;
140 -> 141 ;
142 [label="entropy = 0.924\nsamples = 2521\nvalue = [856, 1665]"] ;
140 -> 142 ;
143 [label="disbursal_timestamp <= 1024289984.0\nentropy = 0.963\nsamples = 22555\nvalue = [8735, 13820]"] ;
139 -> 143 ;
144 [label="entropy = 0.99\nsamples = 13301\nvalue = [5877, 7424]"] ;
143 -> 144 ;
145 [label="entropy = 0.892\nsamples = 9254\nvalue = [2858, 6396]"] ;
143 -> 145 ;
146 [label="disbursal_timestamp <= 1024289984.0\nentropy = 1.0\nsamples = 51073\nvalue = [25768, 25305]"] ;
130 -> 146 ;
147 [label="loan_amnt <= 99500.0\nentropy = 0.982\nsamples = 29516\nvalue = [17082, 12434]"] ;
146 -> 147 ;
148 [label="annual_inc <= 14361.5\nentropy = 0.99\nsamples = 10396\nvalue = [4573, 5823]"] ;
147 -> 148 ;
149 [label="entropy = 0.937\nsamples = 3422\nvalue = [1211, 2211]"] ;
148 -> 149 ;
150 [label="entropy = 0.999\nsamples = 6974\nvalue = [3362, 3612]"] ;
148 -> 150 ;
151 [label="annual_inc <= 35050.5\nentropy = 0.93\nsamples = 19120\nvalue = [12509, 6611]"] ;
147 -> 151 ;
152 [label="entropy = 0.977\nsamples = 8971\nvalue = [5279, 3692]"] ;
151 -> 152 ;
153 [label="entropy = 0.866\nsamples = 10149\nvalue = [7230, 2919]"] ;
151 -> 153 ;
154 [label="annual_inc <= 19599.0\nentropy = 0.973\nsamples = 21557\nvalue = [8686, 12871]"] ;
146 -> 154 ;
155 [label="loan_amnt <= 89500.0\nentropy = 0.897\nsamples = 5406\nvalue = [1692, 3714]"] ;
154 -> 155 ;
156 [label="entropy = 0.867\nsamples = 3199\nvalue = [923, 2276]"] ;
155 -> 156 ;
157 [label="entropy = 0.933\nsamples = 2207\nvalue = [769, 1438]"] ;
155 -> 157 ;
158 [label="disbursal_timestamp <= 1055825984.0\nentropy = 0.987\nsamples = 16151\nvalue = [6994, 9157]"] ;
154 -> 158 ;
159 [label="entropy = 0.998\nsamples = 9533\nvalue = [4492, 5041]"] ;
158 -> 159 ;
160 [label="entropy = 0.957\nsamples = 6618\nvalue = [2502, 4116]"] ;
158 -> 160 ;
161 [label="int_rate <= 5.753\nentropy = 0.699\nsamples = 149262\nvalue = [28173, 121089]"] ;
129 -> 161 ;
162 [label="disbursal_timestamp <= 1197824448.0\nentropy = 0.859\nsamples = 28769\nvalue = [8138, 20631]"] ;
161 -> 162 ;
163 [label="loan_amnt <= 162500.0\nentropy = 0.808\nsamples = 22373\nvalue = [5542, 16831]"] ;
162 -> 163 ;
164 [label="credit_score <= 662.5\nentropy = 0.891\nsamples = 8519\nvalue = [2623, 5896]"] ;
163 -> 164 ;
165 [label="entropy = 0.79\nsamples = 3222\nvalue = [763, 2459]"] ;
164 -> 165 ;
166 [label="entropy = 0.935\nsamples = 5297\nvalue = [1860, 3437]"] ;
164 -> 166 ;
167 [label="credit_score <= 687.5\nentropy = 0.743\nsamples = 13854\nvalue = [2919, 10935]"] ;
163 -> 167 ;
168 [label="entropy = 0.67\nsamples = 8180\nvalue = [1434, 6746]"] ;
167 -> 168 ;
169 [label="entropy = 0.829\nsamples = 5674\nvalue = [1485, 4189]"] ;
167 -> 169 ;
170 [label="credit_score <= 688.5\nentropy = 0.974\nsamples = 6396\nvalue = [2596, 3800]"] ;
162 -> 170 ;
171 [label="disbursal_timestamp <= 1292518848.0\nentropy = 0.92\nsamples = 3316\nvalue = [1110, 2206]"] ;
170 -> 171 ;
172 [label="entropy = 0.89\nsamples = 2821\nvalue = [866, 1955]"] ;
171 -> 172 ;
173 [label="entropy = 1.0\nsamples = 495\nvalue = [244, 251]"] ;
171 -> 173 ;
174 [label="disbursal_timestamp <= 1418749248.0\nentropy = 0.999\nsamples = 3080\nvalue = [1486, 1594]"] ;
170 -> 174 ;
175 [label="entropy = 0.998\nsamples = 3012\nvalue = [1429, 1583]"] ;
174 -> 175 ;
176 [label="entropy = 0.639\nsamples = 68\nvalue = [57, 11]"] ;
174 -> 176 ;
177 [label="loan_amnt <= 172500.0\nentropy = 0.649\nsamples = 120493\nvalue = [20035, 100458]"] ;
161 -> 177 ;
178 [label="credit_score <= 664.5\nentropy = 0.722\nsamples = 58353\nvalue = [11675, 46678]"] ;
177 -> 178 ;
179 [label="int_rate <= 6.743\nentropy = 0.635\nsamples = 28070\nvalue = [4503, 23567]"] ;
178 -> 179 ;
180 [label="entropy = 0.685\nsamples = 17958\nvalue = [3276, 14682]"] ;
179 -> 180 ;
181 [label="entropy = 0.533\nsamples = 10112\nvalue = [1227, 8885]"] ;
179 -> 181 ;
182 [label="state_1 <= 0.5\nentropy = 0.79\nsamples = 30283\nvalue = [7172, 23111]"] ;
178 -> 182 ;
183 [label="entropy = 0.829\nsamples = 21273\nvalue = [5562, 15711]"] ;
182 -> 183 ;
184 [label="entropy = 0.677\nsamples = 9010\nvalue = [1610, 7400]"] ;
182 -> 184 ;
185 [label="state_1 <= 0.5\nentropy = 0.57\nsamples = 62140\nvalue = [8360, 53780]"] ;
177 -> 185 ;
186 [label="credit_score <= 682.5\nentropy = 0.609\nsamples = 46592\nvalue = [6970, 39622]"] ;
185 -> 186 ;
187 [label="entropy = 0.55\nsamples = 27654\nvalue = [3518, 24136]"] ;
186 -> 187 ;
188 [label="entropy = 0.685\nsamples = 18938\nvalue = [3452, 15486]"] ;
186 -> 188 ;
189 [label="credit_score <= 682.5\nentropy = 0.434\nsamples = 15548\nvalue = [1390, 14158]"] ;
185 -> 189 ;
190 [label="entropy = 0.377\nsamples = 9413\nvalue = [687, 8726]"] ;
189 -> 190 ;
191 [label="entropy = 0.514\nsamples = 6135\nvalue = [703, 5432]"] ;
189 -> 191 ;
192 [label="disbursal_timestamp <= 1055825984.0\nentropy = 0.997\nsamples = 164069\nvalue = [86912, 77157]"] ;
128 -> 192 ;
193 [label="annual_inc <= 21009.5\nentropy = 0.809\nsamples = 53072\nvalue = [39879, 13193]"] ;
192 -> 193 ;
194 [label="annual_inc <= 15190.5\nentropy = 0.979\nsamples = 12728\nvalue = [7435, 5293]"] ;
193 -> 194 ;
195 [label="credit_score <= 755.5\nentropy = 0.998\nsamples = 5911\nvalue = [3103, 2808]"] ;
194 -> 195 ;
196 [label="disbursal_timestamp <= 976985984.0\nentropy = 0.999\nsamples = 2841\nvalue = [1366, 1475]"] ;
195 -> 196 ;
197 [label="entropy = 0.994\nsamples = 1218\nvalue = [664, 554]"] ;
196 -> 197 ;
198 [label="entropy = 0.987\nsamples = 1623\nvalue = [702, 921]"] ;
196 -> 198 ;
199 [label="credit_score <= 818.0\nentropy = 0.987\nsamples = 3070\nvalue = [1737, 1333]"] ;
195 -> 199 ;
200 [label="entropy = 0.981\nsamples = 2919\nvalue = [1694, 1225]"] ;
199 -> 200 ;
201 [label="entropy = 0.862\nsamples = 151\nvalue = [43, 108]"] ;
199 -> 201 ;
202 [label="disbursal_timestamp <= 992753984.0\nentropy = 0.946\nsamples = 6817\nvalue = [4332, 2485]"] ;
194 -> 202 ;
203 [label="credit_score <= 815.0\nentropy = 0.874\nsamples = 2949\nvalue = [2081, 868]"] ;
202 -> 203 ;
204 [label="entropy = 0.86\nsamples = 2858\nvalue = [2049, 809]"] ;
203 -> 204 ;
205 [label="entropy = 0.936\nsamples = 91\nvalue = [32, 59]"] ;
203 -> 205 ;
206 [label="credit_score <= 750.5\nentropy = 0.981\nsamples = 3868\nvalue = [2251, 1617]"] ;
202 -> 206 ;
207 [label="entropy = 0.999\nsamples = 1671\nvalue = [859, 812]"] ;
206 -> 207 ;
208 [label="entropy = 0.948\nsamples = 2197\nvalue = [1392, 805]"] ;
206 -> 208 ;
209 [label="disbursal_timestamp <= 1024289984.0\nentropy = 0.713\nsamples = 40344\nvalue = [32444, 7900]"] ;
193 -> 209 ;
210 [label="credit_score <= 5418.0\nentropy = 0.621\nsamples = 27551\nvalue = [23298, 4253]"] ;
209 -> 210 ;
211 [label="annual_inc <= 39032.5\nentropy = 0.597\nsamples = 26862\nvalue = [22974, 3888]"] ;
210 -> 211 ;
212 [label="entropy = 0.705\nsamples = 13398\nvalue = [10830, 2568]"] ;
211 -> 212 ;
213 [label="entropy = 0.463\nsamples = 13464\nvalue = [12144, 1320]"] ;
211 -> 213 ;
214 [label="int_rate <= 8.562\nentropy = 0.997\nsamples = 689\nvalue = [324, 365]"] ;
210 -> 214 ;
215 [label="entropy = 1.0\nsamples = 607\nvalue = [310, 297]"] ;
214 -> 215 ;
216 [label="entropy = 0.659\nsamples = 82\nvalue = [14, 68]"] ;
214 -> 216 ;
217 [label="credit_score <= 759.5\nentropy = 0.862\nsamples = 12793\nvalue = [9146, 3647]"] ;
209 -> 217 ;
218 [label="annual_inc <= 49241.0\nentropy = 0.938\nsamples = 6307\nvalue = [4074, 2233]"] ;
217 -> 218 ;
219 [label="entropy = 0.962\nsamples = 4327\nvalue = [2659, 1668]"] ;
218 -> 219 ;
220 [label="entropy = 0.863\nsamples = 1980\nvalue = [1415, 565]"] ;
218 -> 220 ;
221 [label="annual_inc <= 41324.5\nentropy = 0.757\nsamples = 6486\nvalue = [5072, 1414]"] ;
217 -> 221 ;
222 [label="entropy = 0.857\nsamples = 3180\nvalue = [2286, 894]"] ;
221 -> 222 ;
223 [label="entropy = 0.628\nsamples = 3306\nvalue = [2786, 520]"] ;
221 -> 223 ;
224 [label="int_rate <= 5.845\nentropy = 0.983\nsamples = 110997\nvalue = [47033, 63964]"] ;
192 -> 224 ;
225 [label="credit_score <= 772.5\nentropy = 0.991\nsamples = 34116\nvalue = [18995, 15121]"] ;
224 -> 225 ;
226 [label="disbursal_timestamp <= 1197824448.0\nentropy = 0.999\nsamples = 20134\nvalue = [9691, 10443]"] ;
225 -> 226 ;
227 [label="disbursal_timestamp <= 1087405216.0\nentropy = 0.989\nsamples = 15292\nvalue = [6717, 8575]"] ;
226 -> 227 ;
228 [label="entropy = 0.995\nsamples = 3525\nvalue = [1913, 1612]"] ;
227 -> 228 ;
229 [label="entropy = 0.976\nsamples = 11767\nvalue = [4804, 6963]"] ;
227 -> 229 ;
230 [label="annual_inc <= 65480.5\nentropy = 0.962\nsamples = 4842\nvalue = [2974, 1868]"] ;
226 -> 230 ;
231 [label="entropy = 0.979\nsamples = 4096\nvalue = [2399, 1697]"] ;
230 -> 231 ;
232 [label="entropy = 0.777\nsamples = 746\nvalue = [575, 171]"] ;
230 -> 232 ;
233 [label="disbursal_timestamp <= 1197824448.0\nentropy = 0.92\nsamples = 13982\nvalue = [9304, 4678]"] ;
225 -> 233 ;
234 [label="annual_inc <= 70091.5\nentropy = 0.965\nsamples = 9340\nvalue = [5688, 3652]"] ;
233 -> 234 ;
235 [label="entropy = 0.98\nsamples = 7764\nvalue = [4529, 3235]"] ;
234 -> 235 ;
236 [label="entropy = 0.834\nsamples = 1576\nvalue = [1159, 417]"] ;
234 -> 236 ;
237 [label="annual_inc <= 51360.0\nentropy = 0.762\nsamples = 4642\nvalue = [3616, 1026]"] ;
233 -> 237 ;
238 [label="entropy = 0.846\nsamples = 3086\nvalue = [2244, 842]"] ;
237 -> 238 ;
239 [label="entropy = 0.524\nsamples = 1556\nvalue = [1372, 184]"] ;
237 -> 239 ;
240 [label="credit_score <= 771.5\nentropy = 0.947\nsamples = 76881\nvalue = [28038, 48843]"] ;
224 -> 240 ;
241 [label="disbursal_timestamp <= 1087405216.0\nentropy = 0.889\nsamples = 49356\nvalue = [15117, 34239]"] ;
240 -> 241 ;
242 [label="annual_inc <= 23156.0\nentropy = 1.0\nsamples = 4780\nvalue = [2382, 2398]"] ;
241 -> 242 ;
243 [label="entropy = 0.977\nsamples = 1773\nvalue = [727, 1046]"] ;
242 -> 243 ;
244 [label="entropy = 0.993\nsamples = 3007\nvalue = [1655, 1352]"] ;
242 -> 244 ;
245 [label="loan_amnt <= 151500.0\nentropy = 0.863\nsamples = 44576\nvalue = [12735, 31841]"] ;
241 -> 245 ;
246 [label="entropy = 0.94\nsamples = 16443\nvalue = [5863, 10580]"] ;
245 -> 246 ;
247 [label="entropy = 0.802\nsamples = 28133\nvalue = [6872, 21261]"] ;
245 -> 247 ;
248 [label="state_1 <= 0.5\nentropy = 0.997\nsamples = 27525\nvalue = [12921, 14604]"] ;
240 -> 248 ;
249 [label="loan_amnt <= 200500.0\nentropy = 1.0\nsamples = 20637\nvalue = [10466, 10171]"] ;
248 -> 249 ;
250 [label="entropy = 0.99\nsamples = 12526\nvalue = [6996, 5530]"] ;
249 -> 250 ;
251 [label="entropy = 0.985\nsamples = 8111\nvalue = [3470, 4641]"] ;
249 -> 251 ;
252 [label="loan_amnt <= 120500.0\nentropy = 0.94\nsamples = 6888\nvalue = [2455, 4433]"] ;
248 -> 252 ;
253 [label="entropy = 0.996\nsamples = 2240\nvalue = [1034, 1206]"] ;
252 -> 253 ;
254 [label="entropy = 0.888\nsamples = 4648\nvalue = [1421, 3227]"] ;
252 -> 254 ;
}